{
  "model": "price-predictor",
  "version": "1.0.0",
  "architecture": {
    "input_size": 4,
    "hidden_size": 16,
    "output_size": 3,
    "activation": "relu",
    "output_activation": "softmax"
  },
  "weights": {
    "W1": [
      [
        -0.2971127280694544,
        -0.16209886312388702,
        0.019245252704758995,
        -0.3008977013825259,
        -0.6308693744585121,
        0.9394518809096176,
        -0.5327451604088372,
        -0.8304310045509398,
        -0.3488593311495147,
        -0.13404480705175864,
        -0.8592149826547142,
        1.0739058642574997,
        0.5343712682438794,
        0.5959327763782306,
        -0.6348805398647431,
        -0.08966284241535764
      ],
      [
        0.39881118255970643,
        1.288976251450635,
        -0.21117394402318795,
        1.3478619070824185,
        0.389137357196739,
        0.8060314727588578,
        -0.03745373474223798,
        2.0248076401006427,
        0.35615957400502946,
        0.03819211410811607,
        1.6558114089908467,
        -0.14550500744139486,
        -1.849506289774685,
        0.1552861657310567,
        0.47919046394228176,
        -1.2936163453530345
      ],
      [
        0.7981327926984411,
        -0.0060089125047636666,
        0.44669950679682957,
        0.1351108753006191,
        -0.43826763324810636,
        0.5149888139572301,
        0.6070353325523228,
        -0.8895460539118648,
        -0.3096028382507318,
        1.11492202806999,
        -1.2456015995687444,
        -1.462620621016302,
        -0.9572920241785597,
        -0.49421488126418045,
        -0.38156945602244974,
        -0.059454373631116185
      ],
      [
        -0.4068170446870631,
        -0.8621630921082114,
        1.79075090868845,
        -0.49711678220993244,
        -1.3535212110678654,
        1.71140220613155,
        0.33273856083864883,
        0.5079299161713942,
        0.5685011204057496,
        0.9311683853686272,
        -1.686315814152329,
        0.12212513618284952,
        0.4924076929529788,
        -0.13760094464751846,
        1.237309721356057,
        0.4380362725367703
      ]
    ],
    "b1": [
      -0.056960623215160065,
      -0.02577927398705066,
      -0.02185941733273889,
      -0.08562608207001712,
      0.03285404558001225,
      0.04439210098580453,
      -0.04805387372131551,
      -0.01843060133787986,
      0.04763918228412105,
      -0.12517698422783383,
      0.013233710065906183,
      0.01895470705450578,
      -0.08213383812661505,
      -0.03200657902663445,
      -0.014932438981743953,
      -0.07032829364279845
    ],
    "W2": [
      [
        -0.4712918020727598,
        -0.10426999433453124,
        -0.061251261251674134
      ],
      [
        -0.14026991772434405,
        -0.14514607801536691,
        0.27631216552489507
      ],
      [
        -0.15051217401530775,
        -0.21467649373767084,
        -0.043639552866254976
      ],
      [
        -0.491900912117245,
        0.3175239185850532,
        -0.3239053750568697
      ],
      [
        -0.41097217371581696,
        -0.009660995062165348,
        -0.2047179236472818
      ],
      [
        0.10368862616459512,
        -0.2925819030249098,
        -0.2717255167588704
      ],
      [
        -0.20337165942812072,
        -0.2807946098347623,
        0.34940166396800704
      ],
      [
        0.24054590620683952,
        0.5151935776990884,
        0.1319553664472983
      ],
      [
        0.06869675109970318,
        0.09128094087505914,
        -0.7412641145691857
      ],
      [
        -0.25667537645566296,
        -0.3028975990388877,
        0.7990505833916647
      ],
      [
        -0.08547742436482347,
        0.12125337068993637,
        -0.18172322066128566
      ],
      [
        0.13162635431584604,
        0.5911708848093179,
        0.12388807167259819
      ],
      [
        7.207773281067914e-05,
        -0.43021193888848813,
        0.08125087838123975
      ],
      [
        0.01007088877923806,
        -0.2517783281858332,
        0.6332537851762642
      ],
      [
        -0.2524142046268317,
        -0.3013017134846429,
        -0.05594580550831541
      ],
      [
        0.743924253401632,
        0.028687387112705336,
        0.06074800227479056
      ]
    ],
    "b2": [
      0.09273652486319324,
      0.039666781305647325,
      -0.13240330616884055
    ]
  },
  "labels": [
    "UP",
    "DOWN",
    "SIDEWAYS"
  ]
}